{
  "feature_names": [
    "amplitude_mean",
    "amplitude_std",
    "amplitude_skew",
    "amplitude_kurtosis",
    "channel_var_mean",
    "channel_var_std",
    "corr_mean",
    "corr_std",
    "bp_delta_mean",
    "bp_delta_std",
    "bp_theta_mean",
    "bp_theta_std",
    "bp_alpha_mean",
    "bp_alpha_std",
    "bp_beta_mean",
    "bp_beta_std",
    "bp_gamma_mean",
    "bp_gamma_std"
  ],
  "sex_weights": [
    -12582767.0,
    1268.453857421875,
    0.18421074748039246,
    -0.02002904936671257,
    -821.0518798828125,
    -2.5638444423675537,
    2.3835341930389404,
    2.6767356395721436,
    11.366534233093262,
    -0.04927022010087967,
    12.904170989990234,
    0.03466038778424263,
    16.240304946899414,
    -0.03168857470154762,
    55.439579010009766,
    1.2124440670013428,
    37.468379974365234,
    -2.138278007507324
  ],
  "sex_bias": -611.3148193359375,
  "age_weights": [
    -523723.9375,
    -8423.48828125,
    0.09818899631500244,
    -0.12597425282001495,
    4570.98046875,
    50.70380783081055,
    -0.5821652412414551,
    2.027825117111206,
    -8.933362007141113,
    0.017166893929243088,
    -10.13911247253418,
    -0.055983513593673706,
    -12.737532615661621,
    0.006544969044625759,
    -40.21885299682617,
    -3.5084667205810547,
    -11.013453483581543,
    -10.32148265838623
  ],
  "age_bias": 3975.981201171875,
  "age_mean": 10.22047233581543,
  "age_std": 2.2477920055389404,
  "train_metrics": {
    "sex_rmse": 0.38556113839149475,
    "age_rmse": 0.8045189380645752
  }
}